31.204887375829
-58.8091300853871
-18.6532583559545
20.8247878400845
-28.7730108062275
-11.8562193603056
-4.8587029264524
2.03047485177122
-4.77117132255404
47.0469921715691
-33.2396100208887
32.4865893231715
43.438723420131
30.6461379282005
21.1426437271467
-28.6529622142759
32.7160750941494
-3.93885099713914
-85.1517929851031
-10.3872157596342
29.5445454180607
-21.4528510717269
-15.1177453063306
38.7791176423458
34.2274653972563
33.0059237856221
18.5073077996969
35.8880008680758
-72.4535059129589
25.3566567495491
-15.4526030764331
32.1390967138687
18.0319039249631
-0.553880444241956
-62.75388491345
-97.6971581041935
44.3640625237088
-60.9928273533717
-83.2261427672713
-6.6140495361183
-64.2561621280074
-16.35388054484
-17.238069317379
-73.5627709008274
43.85234970377
15.5093289338057
21.5815701228929
-56.2116341537267
58.9863139677399
-6.10362098568229
16.847375249133
11.2841031998366
9.88150138889888
-2.09525952361972
-34.3677284887766
-27.7507164165464
16.060624417489
30.970165132593
-3.19622602011254
20.8472852540744
-99.4744704606224
21.0382686470126
-12.013523627179
-55.2991528634918
-39.9468246788254
-66.7742826973582
-49.8915868680625
-25.5769280191169
-45.9738982594432
29.8108695283364
-16.8007041459985
-6.41573340569311
25.0034907028779
7.53799085294106
17.0500566848144
42.1559425456415
-59.9972958336438
20.596099590375
18.2927853686314
31.6742955274659
46.1620184918694
12.5662721746932
27.4887399531071
38.4601266260548
-2.34034023014648
27.083740109984
45.5418680180142
-28.903865732894
-14.2062108260468
51.052832146283
29.6847553865185
-7.18285756451961
-7.56191228722827
-71.8144421100724
-49.5287751554641
-2.48243793817872
-73.9094168039931
28.7446307932413
-2.89134480241131
52.5951828481902
