-4.72010729223843
19.4475952490376
-9.92057788489581
14.8935712244482
-6.23076102168882
9.78832257632912
-3.38369142264921
2.07201445645498
-15.1667878367648
9.83387835318669
6.1846714826773
-6.14361251819505
17.5050899458753
13.4864513411098
-4.51378116020715
-44.1954544512438
-8.11649190049073
-13.5883816363788
13.693040686186
-15.1459823017884
11.2794211306385
11.1365682134554
-5.28659349308437
-32.5386812962852
-18.1838488345906
-10.9487433710027
13.3370481015556
-21.9468558080557
12.5214607949034
-6.7845150141474
20.0984822295774
23.1658962078061
-6.64626465947305
16.471283176262
-9.84368567583573
8.03501852264968
-20.4095127492694
-55.3495414923027
-16.8177546112886
-4.94058229450813
-18.9173301044027
7.41452729572523
9.52778600686821
15.3447994133619
-26.7301885126932
15.4334406025836
11.6965328839773
7.45235863438414
21.0822322936405
-22.1501961828336
12.8286193673664
0.809539901015515
-28.1011003749852
-12.204539128757
8.44382416350035
-26.3724154213232
-8.50726125671686
-12.1136977597832
18.128409731387
18.3338517432147
-13.5093489721411
-12.3557225730578
-48.16985019114
32.25876727051
21.6563723843573
17.9281176279499
-8.03223530876616
-27.4115555419224
15.5929841199405
-21.0829455681531
15.6923169601336
-6.53598688836216
-18.1509846277784
12.4049767865888
-2.79243841110883
-41.4001793177043
-2.82754609984098
-2.28416255703607
14.2924690026887
9.79571038829641
4.47947250001483
15.6404041986469
-2.11444526187157
5.20972236239064
7.80607375605696
0.351185187548208
27.3426121846099
-11.3405839195697
-6.01293027673875
-11.5369983065277
-7.87536791355926
-26.4186107495525
-0.922149936903478
18.9038400530058
9.60266091667958
-18.429073990807
-6.79141998860714
11.2040218449287
-7.31469585144359
18.2633851105713
